-7.735424443451450749e+00 1.387089441720040783e-01 -4.168917843407245982e+01 -3.138326000085140066e+01 -4.647084397942250256e+00 -1.822659344819342886e-01 -2.741508356659472767e+01 -3.378698056138578626e-02 -2.542428579941964983e+01 -3.281276364094348708e+01 -1.763210135551852886e+01 -2.701783813113229016e+00 -1.812480081919464192e-01 -1.964219503269388056e+01 3.855986042183794926e-01 -2.043979671382017305e+00 -1.993366098914907125e-01 -6.057262751544380208e+00 -1.550510101916528427e+01 -1.845571875880009927e+01 -5.755887708077345621e+00 -7.113594533212417304e+00 -2.285054539790621231e+00 -1.249481925591088061e+00 -2.499738386449104155e+01 -5.726264602353332567e-01 -3.833604250699729477e+01 -1.927114269575360694e+00 -1.013092027876379531e+00 -3.798894149420981581e+00 -8.180884928634753805e+01 -6.487177049534437856e+01 -2.063802261795751036e+01 -7.259506254285729199e+01 -1.330615375258971689e+01 -5.104374019985914401e+01 -3.417744498399078168e+01 -1.050466098597061126e+01 -6.602048665600457333e-02 -2.281591994502548104e+01 -5.230401888645982922e+01 -1.073349389724973868e+01 -3.412346017671821219e+00 -2.161044206216381980e+01 -4.946494552721222249e+01 -6.477722445298992326e+00 -6.051877757178318440e+00 -1.287214187076686223e-01 -3.160619534749413706e+00 -3.902775492537331470e+00 -8.173203960449972882e+00 -1.758831361956361361e+00 -5.297438635397399764e+01 3.924959593786790379e-01 -7.411762946153243270e+00 -6.017251793203169719e+00 -5.008548973237405555e-01 -3.637965508820027782e+00 -3.413346032243758099e+00 -1.040067423988003625e+01 -1.716215277089404800e+00 -5.126460570629651414e+01 4.748544268342774766e-01 -1.134942637268486987e+00 -1.860141901445595769e+00 -8.259965092857541435e+01 6.404215233753328684e-01 -4.932892439515684235e-01 -7.747812907301100438e+01 -7.575164137171491952e+00 1.416850751345956061e-01 -2.325535212052531620e+01 -3.847032015019224982e-02 -1.779287182221473884e+01 -1.307787974430441036e-02 -4.168524413235589776e+01 8.056646483703522321e-02 2.644071328861241632e-02 -2.117289748140098027e+01 -2.217185417793474755e+01 -3.392741677943497125e-01 -2.387013421699315074e+01 -1.416605575842799114e+00 2.099199136898858287e-01 -6.539687306376400500e-01 -1.265348992890751667e+01 -1.030009327796388208e+00 -7.214415953442900431e+00 -6.584815061937822733e+00 -5.366004348267199298e+00 -2.052765970210698043e+01 -2.301593457136992171e+01 -2.165546470675371182e+01 -3.402363259368257076e+01 -5.729562548638506669e+00 -4.997010094729297691e+00 -8.852810668673114947e+00 -3.793920825257322438e+00 -3.856660896819939843e+00 -2.130805309756322785e+01
-4.485832804766339832e-01 6.878829700408842229e-02 -3.898765305695877714e+01 -2.229046468571249306e+01 -6.843176511248917571e+00 7.850718539650072270e-01 -1.526425261159224789e+01 3.487150445695169076e-01 -4.004627853126095971e+01 -1.413294735795223822e+01 -2.389564805478579856e+01 -3.238674648149387769e-01 -2.200046393044716997e-01 -1.474244830174044019e+01 2.081014117073859138e-01 -1.692416534033022724e-01 -1.544186664337307002e-01 -1.651161531106903624e+01 -4.690543550466879097e+00 -7.637931480974336829e+00 -8.615662976685144470e-01 -2.151822664395416584e+00 -4.740219658461006791e-01 -6.493574356321526686e+00 -1.475847687233213179e+01 8.363908096826913052e-01 -3.426298139831552447e+01 6.529036816267375087e-03 -7.352782938462580020e+00 -1.234587013811202783e-01 -7.015336911978988610e+01 -6.499825929152567028e+01 -4.617681622071985181e+00 -4.618531990487444716e+01 -2.399276641577622726e+01 -1.749786039451971575e+01 -5.192825925663289155e+01 -5.482143084074332373e-01 2.645818199925302761e-01 -1.727684550900578486e+01 -5.097115254877829216e+01 -6.431731346704171459e-01 -1.239914169340457395e+00 -2.219625788815745437e+01 -4.462423401445907700e+01 -1.799663970640329680e+00 -1.764999392912753873e+00 4.014941821941905298e-01 -6.869173226784717201e+00 4.179415796127435856e-01 -2.610015655822558145e+01 3.252709255863174276e-01 -3.056266862222869207e+01 9.232055385383842738e-01 -1.648195969547346262e+00 -3.084765488782270637e+00 2.334111970655854129e-01 -5.156308429596561105e+00 4.668275343684790135e-01 -2.810001656128686065e+01 1.731667588100510857e-01 -3.017830829290717531e+01 -6.020877482080438936e-02 8.303350637577214255e-02 4.178295448535383483e-01 -7.029651275433933222e+01 3.480603231669424091e-01 2.189203018150125135e-01 -6.775427544116607237e+01 -1.950865148139939942e+00 5.138465964508678319e-01 -2.181906149464559874e+01 -2.940523002799274588e-01 -8.263983779481609560e+00 5.788754727034876035e-01 -3.915413553507532640e+01 2.524564232470896119e-01 8.040814184330846714e-01 -1.669496947788478636e+01 -1.766422501531530287e+01 -2.881932492109165467e-02 -1.016047460919076251e+01 5.350964789268375377e-01 2.319262997747595367e-03 9.018398009349881672e-02 -2.275766080837716387e+01 1.737078812793287352e-01 1.520461652636793115e-01 4.011035066157088158e-01 -2.611357713279933268e+00 -2.967700714386985350e+00 -4.972811621626912171e+01 -1.234074971899696571e+01 -6.073294527152169664e+00 -4.587392982433784461e+00 -8.278848264381787336e-01 -1.123003657356925622e+01 -7.463972667425861074e-01 3.423252248222558580e-01 -4.435621728236225891e+01
-1.838530164073707240e+01 8.856533650087150544e-01 -4.685815156131630488e+02 -4.912233954422732154e+02 -1.607919614931090564e+02 -8.275724960957069332e-01 -3.483941626944359768e+02 -2.735800446778251238e-02 -4.144306058976147824e+02 -3.768867183742706288e+02 -3.930314847200848476e+02 -1.618321826758426596e+01 -2.853769342593976521e+00 -2.018013210692836878e+02 1.086871103026486596e-01 -7.657505066363421875e+00 2.802102943560155213e-01 -2.856621331839167510e+02 -7.595113084683545424e+01 -1.543532377242101461e+02 -1.216915412264657270e+01 -2.213575969333553672e+01 -9.175719631013873112e+00 -1.536711118913381426e+02 -3.986228416799143019e+02 1.948995860729296203e-01 -3.767284611410871662e+02 -1.167457302374659278e+01 -1.520900896754564826e+02 -9.861659456971775484e+00 -1.130247631953600830e+03 -9.916340272168807815e+02 -1.478899965332720399e+02 -6.347589964548911894e+02 -5.048178069400774461e+02 -3.348453077773825157e+02 -8.050136040305479810e+02 -6.697935294046855859e+01 -1.337455708782738562e+00 -4.807569325748334563e+02 -5.892703573392665248e+02 -7.955712991829321368e+01 -1.861166057897437653e+01 -4.667707119935881792e+02 -5.744660244283637667e+02 -6.363189133653467167e+01 -7.445919470545457841e+01 3.696370086838151603e-01 -5.417513330075811240e+01 -9.964419143097323683e+00 -4.135954373355528446e+02 -3.075832845925777548e+00 -5.185769379782279884e+02 3.424165951279746212e-01 -8.875290977262480396e+01 -5.520706680094342289e+01 -4.022840935806298868e-01 -6.596464277939007559e+01 -9.445091572205061681e+00 -4.143815842265909737e+02 -3.866308379616075541e+00 -4.976914656897601503e+02 -1.793582072190323284e+00 -3.842552110867726523e+00 -5.757734171037154347e+00 -1.130409190447089941e+03 4.881321612368643148e-01 1.847677986240311987e-01 -1.104555572406772171e+03 -3.497791343477356207e+01 8.312692259534329997e-01 -5.834770035315444829e+02 -1.689293235910029445e+00 -2.212452813475567837e+02 3.429847585698876933e-01 -3.330633373914969297e+02 9.197179052947450639e-01 7.646752620726885441e-01 -1.701341116561110027e+02 -2.009915786096458987e+02 -9.315225855127337029e-01 -2.548597773832916289e+02 -2.084697453437828862e+00 -4.017597443177263195e-01 -4.690128862646715469e+00 -5.001777359400064711e+02 -2.501062425252567945e+00 -4.697771369195668001e+01 -1.377839690315737720e+01 -9.917505182813295406e+00 -1.180383794677072160e+02 -7.244974002103527937e+02 -2.256443052318871594e+02 -2.728597935386671338e+02 -1.721318197622631487e+02 -4.463297858691988473e+00 -2.198085630435717235e+02 -1.584884122867342526e+01 -8.221352723578672084e+00 -4.432828649820231703e+02
-5.596265278593149928e-01 1.457426903781745275e-01 -2.140803939348830731e+00 -2.064412310945714424e+00 -1.620633846801300681e-01 7.630571952406804970e-01 -2.573364700048544340e-01 8.218782973828112071e-02 -7.926067344409672977e-01 -3.979116061617558486e+00 -1.682939799312601403e+00 -2.308801256411552871e-01 9.004099537132642661e-01 -8.828624510813942727e-01 9.468240751629820595e-01 7.747596534037124449e-01 4.037973592080911778e-01 4.370478744258066151e-01 -1.280814799759741440e+00 -3.978233231825832883e-01 2.699834032156899211e-01 1.397899751139624058e-01 -2.165186928287166079e-02 -2.525934356162946592e-01 -4.553483364217726821e-03 6.820617794084676833e-01 -2.727480685911884972e+00 -3.308083649767300516e-01 -1.942653278767485781e-01 4.240875658048086638e-01 -5.831716015773793949e+00 -4.602611682266416260e+00 -1.816877540367199950e+00 -3.587738484376442383e+00 -2.598767298337856690e+00 -3.320040306286028642e+00 -1.951213013774405258e+00 -2.511852111834734780e-01 7.757499365148231574e-01 -1.477145924324827275e+00 -4.182528321029332474e+00 -1.319479966160093110e-01 -3.797155962569130905e-01 -2.472183237669798028e-01 -3.496632234767178993e+00 9.012522602961358098e-01 9.544047967982937086e-01 3.681802530565999598e-01 4.346586638471483521e-01 6.484322826467322498e-01 -3.509172768338690851e-01 8.556093297011404530e-01 -5.423104299166066511e+00 8.836804054950607723e-01 -7.648011989906330910e-02 2.032624574968555919e-01 9.915748449039747392e-01 3.128528045804196411e-02 4.735500541911921712e-01 5.515456690862207134e-01 -2.368678309146133448e-02 -5.775187238697808922e+00 1.083678495135659108e-02 4.064666971600226497e-01 1.212569582415237573e-01 -6.490505887419247166e+00 2.701477098364611917e-01 9.721937841062751051e-01 -4.467988264107584762e+00 -1.148268486915708930e+00 4.715416653380914980e-01 -1.225249927525626781e+00 6.091652084375023118e-02 7.709015433243850968e-01 3.081854079321463269e-01 -4.325863296347018050e+00 6.678817975937342277e-01 4.984218608587198673e-01 -1.814708428336292867e+00 -2.501353476654745167e-01 3.642323007937065538e-01 -4.571540807192061018e-01 4.657191570503965150e-01 2.531922452844279636e-01 4.930955237093170851e-01 -2.697190822626144957e+00 9.055784523313312739e-01 1.652946269557244718e-01 3.069009505473049848e-01 -2.961712349216578666e-01 -2.363223689738990441e+00 -1.662785273542631836e+00 -3.686060679792191874e-01 -1.706347356732186293e+00 -4.322519202259321180e-01 3.657508051996087861e-01 -8.827277901042289709e-01 -1.025248016323121236e+00 6.168746690400666033e-01 -2.526022554942548015e-01
3.469323422808037627e+00 6.174074472861506013e-01 1.959989005036526777e+01 1.461384542652699814e+01 3.335066814507138933e+00 6.021519240575885501e-01 1.419331486127688891e+01 8.070988149637073894e-01 1.636785892226581751e+01 1.034194375728853643e+01 5.625934360831722714e+00 1.320814105769904323e+00 7.723432131844760740e-01 1.220809409742317619e+01 4.441122101286841262e-01 6.819315363924405293e-01 8.038621506012312568e-02 7.297935992118547155e+00 6.154774427098964829e+00 8.006362411135047097e+00 2.589587652625083614e+00 2.667244143273058921e+00 1.034132494002712788e+00 1.878457196599321755e+00 1.482444848102383617e+01 9.425480385236829628e-01 1.717226736016650435e+01 8.984664195142306742e-01 1.928829597831305254e+00 8.471316629770966333e-01 3.964907454444697521e+01 3.475370073269110094e+01 5.913711303139105091e+00 3.376235723620828821e+01 6.348063187604896740e+00 2.179808841552808829e+01 1.900151700966811674e+01 2.663018428788687775e+00 2.539713703337050932e-01 1.482264520391706952e+01 2.420544592169980547e+01 2.541129863924257215e+00 1.344773993401370049e+00 1.477101711094061720e+01 2.257871429078007353e+01 3.404917934010046388e+00 4.685184686624102035e+00 9.222708945530739832e-01 3.446431781067319733e+00 3.390641592393959236e-01 1.060855193450129974e+01 8.472039528886183835e-01 1.961144421380542013e+01 5.277650884309049717e-01 4.037978819251851093e+00 3.975894150406014127e+00 5.943745767644781353e-01 3.206981706525124931e+00 5.669244485409759005e-01 8.937227679455096663e+00 8.266275752157627998e-01 2.030376415190479733e+01 6.884507554182127675e-01 3.751908476878007548e-01 4.329706270832553994e-01 3.956699115660509136e+01 3.957631202752283639e-01 3.846122516552722415e-01 3.633208510621435039e+01 4.592415404649406341e+00 9.074688379966573404e-01 7.333254960414850032e+00 7.620888320743882671e-01 1.086749841482414070e+01 2.849859818316038407e-01 2.148877382858401575e+01 3.266927384018609715e-01 7.788204427383329520e-01 1.087504860311182320e+01 8.847845423625818384e+00 5.923518439020724058e-01 1.325677867670767540e+01 1.100430688243801747e+00 9.820468749248281171e-01 2.594559780005118443e-01 8.051397258898786546e+00 9.656850204402164239e-01 1.662008638393397852e+00 1.287174884154972165e+00 3.576398441938605899e+00 6.404455714265043120e+00 1.680615342310199622e+01 1.196481856025904555e+01 1.340633370762554755e+01 1.937921772855426106e+00 1.902872943830517638e+00 4.802486294958033142e+00 1.592751547216181507e+00 9.613872603851445486e-01 1.694743119523732489e+01
-4.235385412735714894e-01 6.908691816021720333e-01 -6.686362472609104657e+00 -4.885372683940005345e+00 -7.858969798194245238e-01 6.760034654814748301e-01 -3.572428408709401815e+00 4.682058083465097109e-01 -4.126470300769485178e+00 -6.162319351388943822e+00 -2.976309555347755431e+00 7.848023806305627348e-01 8.424620889107499178e-01 -1.740073697484733284e+00 1.067441828754246702e-01 4.612277736619488921e-01 1.877114198733828565e-01 -4.047861850765682057e+00 -4.133609150886007555e+00 -7.710988034955252868e-01 3.274254312806437195e-01 -9.286701696482956292e-01 -7.111709848482947738e-01 -6.150936096995655022e-01 -2.072073454177649765e+00 4.821706808806635602e-01 -5.782783907673635149e+00 -1.540219821176479265e+00 -1.234902338928326238e+00 8.905886833594960361e-01 -1.539316884748291869e+01 -1.141361467426993315e+01 -3.708976521964339579e+00 -7.276798263443988724e+00 -7.553569737043202892e+00 -6.233815302202513564e+00 -8.745936684704989972e+00 -5.610772869041422695e-01 4.785051303363425101e-01 -2.231229851620259552e+00 -1.185193952897650327e+01 -1.005997255127604850e+00 6.569548575783970001e-01 -3.304697261242234507e+00 -1.016533803384582235e+01 1.798823334584535305e-01 -1.507579733178853187e-01 1.589957888952347465e-01 -6.744437799531699529e-02 9.213502576940637567e-01 -1.951931446095772849e+00 -5.429460654267879993e-02 -1.116981733213235906e+01 4.427226083848269100e-01 4.886259912221041501e-02 5.071277704925925001e-01 4.614751467659513051e-01 1.734426877329732219e-01 8.408719019704464781e-01 -2.727531566861566059e+00 5.861948043318632173e-04 -1.091243658199105404e+01 8.967165438262015842e-01 4.181106664284909291e-01 7.232509298938902820e-01 -1.601757690764179998e+01 8.731653936295957763e-01 8.710718536478984086e-01 -1.418751745291587518e+01 -7.034114043378931758e-01 2.341497276640138736e-01 -6.518481783680836195e+00 1.665110915957780935e-01 1.320757643210652699e-01 1.956735124653140034e-01 -8.413162604559268232e+00 1.731915939450801023e-01 1.939366657522459958e-01 -3.401377846945026207e+00 -4.918965959673700539e+00 4.256708534543483802e-03 -5.417757820570675564e-01 2.927859830641027505e-01 3.326410562525913134e-02 8.789071108343976535e-01 -5.251391164696071812e+00 7.914224281181398979e-01 1.804557233629332513e-01 2.486499011975301654e-02 2.578782606962278789e-01 -3.536802349748867424e+00 -7.521591933353866999e+00 -2.107647781254217367e+00 -4.434442508777054925e+00 -1.470139203957531393e+00 2.803637447367532398e-01 -1.573692137936624658e+00 -2.701852639166861803e-01 6.142212120782308826e-03 -5.093444207037197025e+00
-4.062140519662720273e-01 6.415282324850022366e-01 -8.269654226518319717e+00 -7.627300514250825003e+00 -1.102205956364191941e+00 2.046113960686074262e-01 -6.058561010024670956e+00 8.615111246013382740e-01 -7.335186280811623050e+00 -5.535460589862442049e+00 -5.031415978975379844e+00 2.842178947158518487e-01 2.936372185581316296e-01 -4.367872547637576375e+00 1.510889936955615576e-01 -9.172388031690925647e-02 6.543316987325780154e-01 -3.139558875271462934e+00 -1.582119401837364769e+00 -2.311439774294778982e+00 -4.105555203219942717e-01 -5.368275629472483157e-01 4.350883967210406045e-01 -7.606090301702229661e-01 -5.430168800299986387e+00 2.800573344304397305e-01 -8.338453253366264306e+00 -5.181873182642351972e-02 -1.230752845608522161e+00 7.313116944897741778e-01 -1.959844511922173282e+01 -1.577908307650649000e+01 -3.110957821714993798e+00 -1.311395603743076421e+01 -6.224066342849275735e+00 -8.041360074680556025e+00 -1.203447971143446971e+01 -8.720305432853869831e-01 1.095020598074842172e-01 -6.012582648559086529e+00 -1.124756315129798523e+01 -1.118715127179755076e+00 -1.145451617070170069e-02 -5.930722754951205822e+00 -1.106066983147816885e+01 -4.977892106044391474e-01 -6.058908136236826891e-01 9.002753338574014386e-01 -9.412273605135302867e-01 3.625814159220064892e-01 -4.650737246898584587e+00 6.561140064359743951e-01 -1.001764432884754186e+01 8.964899864648243621e-01 -6.939441385738146506e-01 -3.391626967291900829e-01 6.602067253595972351e-01 -6.311427241299883972e-01 1.150313650773110430e-01 -4.535493763962509028e+00 -2.464101756896991402e-01 -9.404164376409275050e+00 7.605823647432737866e-01 3.202064074749411127e-01 4.990285122930981920e-01 -1.932702871709077286e+01 5.023057989456051198e-01 8.301142836995899499e-01 -1.787454468738546964e+01 -1.420151619202713267e+00 9.834365930918163023e-01 -6.909956434873513409e+00 3.169497930342457526e-02 -3.370430639783439375e+00 3.282529209962604111e-01 -7.565158323647390048e+00 7.543986075004482927e-02 7.426644029685928183e-01 -4.274923177611661629e+00 -4.142838015502385396e+00 7.119869998606415118e-01 -4.089973337281286092e+00 1.842645795273162579e-01 7.403591589526152539e-02 4.425703863493781753e-01 -5.711710557876379823e+00 3.164266545416509757e-01 -1.004213574729745595e+00 2.757072768298799437e-01 -5.332367592364428699e-01 -2.558351816719699912e+00 -9.925845560263407918e+00 -4.642989680665507990e+00 -4.964331254468762111e+00 -1.207281996305280991e+00 -1.293448603307381095e-01 -2.609467272640768165e+00 1.351380147757688110e-01 -1.868517328025265933e-01 -7.477376557543060187e+00
